digraph Tree {
node [shape=box, style="filled, rounded", color="black", fontname=helvetica] ;
edge [fontname=helvetica] ;
0 [label="LW <= 2.5\ngini = 0.667\nsamples = 147\nvalue = [49, 49, 49]\nclass = B", fillcolor="#ffffff"] ;
1 [label="RW <= 2.5\ngini = 0.544\nsamples = 57\nvalue = [21, 4, 32]\nclass = R", fillcolor="#d8c2f7"] ;
0 -> 1 [labeldistance=2.5, labelangle=45, headlabel="True"] ;
2 [label="RD <= 2.5\ngini = 0.472\nsamples = 21\nvalue = [14, 1, 6]\nclass = B", fillcolor="#f1bc95"] ;
1 -> 2 ;
3 [label="LD <= 3.0\ngini = 0.37\nsamples = 9\nvalue = [7, 1, 1]\nclass = B", fillcolor="#eca06a"] ;
2 -> 3 ;
4 [label="LW <= 1.5\ngini = 0.245\nsamples = 7\nvalue = [6, 0, 1]\nclass = B", fillcolor="#e9965a"] ;
3 -> 4 ;
5 [label="LD <= 1.5\ngini = 0.375\nsamples = 4\nvalue = [3, 0, 1]\nclass = B", fillcolor="#eeab7b"] ;
4 -> 5 ;
6 [label="RD <= 1.5\ngini = 0.5\nsamples = 2\nvalue = [1, 0, 1]\nclass = B", fillcolor="#ffffff"] ;
5 -> 6 ;
7 [label="gini = 0.0\nsamples = 1\nvalue = [1, 0, 0]\nclass = B", fillcolor="#e58139"] ;
6 -> 7 ;
8 [label="gini = 0.0\nsamples = 1\nvalue = [0, 0, 1]\nclass = R", fillcolor="#8139e5"] ;
6 -> 8 ;
9 [label="gini = 0.0\nsamples = 2\nvalue = [2, 0, 0]\nclass = B", fillcolor="#e58139"] ;
5 -> 9 ;
10 [label="gini = 0.0\nsamples = 3\nvalue = [3, 0, 0]\nclass = B", fillcolor="#e58139"] ;
4 -> 10 ;
11 [label="RD <= 1.5\ngini = 0.5\nsamples = 2\nvalue = [1, 1, 0]\nclass = B", fillcolor="#ffffff"] ;
3 -> 11 ;
12 [label="gini = 0.0\nsamples = 1\nvalue = [0, 1, 0]\nclass = L", fillcolor="#39e581"] ;
11 -> 12 ;
13 [label="gini = 0.0\nsamples = 1\nvalue = [1, 0, 0]\nclass = B", fillcolor="#e58139"] ;
11 -> 13 ;
14 [label="LD <= 4.5\ngini = 0.486\nsamples = 12\nvalue = [7, 0, 5]\nclass = B", fillcolor="#f8dbc6"] ;
2 -> 14 ;
15 [label="RW <= 1.5\ngini = 0.5\nsamples = 10\nvalue = [5, 0, 5]\nclass = B", fillcolor="#ffffff"] ;
14 -> 15 ;
16 [label="LD <= 2.5\ngini = 0.375\nsamples = 4\nvalue = [3, 0, 1]\nclass = B", fillcolor="#eeab7b"] ;
15 -> 16 ;
17 [label="RD <= 3.5\ngini = 0.5\nsamples = 2\nvalue = [1, 0, 1]\nclass = B", fillcolor="#ffffff"] ;
16 -> 17 ;
18 [label="gini = 0.0\nsamples = 1\nvalue = [0, 0, 1]\nclass = R", fillcolor="#8139e5"] ;
17 -> 18 ;
19 [label="gini = 0.0\nsamples = 1\nvalue = [1, 0, 0]\nclass = B", fillcolor="#e58139"] ;
17 -> 19 ;
20 [label="gini = 0.0\nsamples = 2\nvalue = [2, 0, 0]\nclass = B", fillcolor="#e58139"] ;
16 -> 20 ;
21 [label="LW <= 1.5\ngini = 0.444\nsamples = 6\nvalue = [2, 0, 4]\nclass = R", fillcolor="#c09cf2"] ;
15 -> 21 ;
22 [label="gini = 0.0\nsamples = 2\nvalue = [0, 0, 2]\nclass = R", fillcolor="#8139e5"] ;
21 -> 22 ;
23 [label="RD <= 3.5\ngini = 0.5\nsamples = 4\nvalue = [2, 0, 2]\nclass = B", fillcolor="#ffffff"] ;
21 -> 23 ;
24 [label="gini = 0.0\nsamples = 1\nvalue = [1, 0, 0]\nclass = B", fillcolor="#e58139"] ;
23 -> 24 ;
25 [label="LD <= 3.5\ngini = 0.444\nsamples = 3\nvalue = [1, 0, 2]\nclass = R", fillcolor="#c09cf2"] ;
23 -> 25 ;
26 [label="gini = 0.0\nsamples = 2\nvalue = [0, 0, 2]\nclass = R", fillcolor="#8139e5"] ;
25 -> 26 ;
27 [label="gini = 0.0\nsamples = 1\nvalue = [1, 0, 0]\nclass = B", fillcolor="#e58139"] ;
25 -> 27 ;
28 [label="gini = 0.0\nsamples = 2\nvalue = [2, 0, 0]\nclass = B", fillcolor="#e58139"] ;
14 -> 28 ;
29 [label="RD <= 2.5\ngini = 0.434\nsamples = 36\nvalue = [7, 3, 26]\nclass = R", fillcolor="#ac7dee"] ;
1 -> 29 ;
30 [label="LD <= 2.5\ngini = 0.605\nsamples = 20\nvalue = [7, 3, 10]\nclass = R", fillcolor="#e2d1f9"] ;
29 -> 30 ;
31 [label="LW <= 1.5\ngini = 0.278\nsamples = 6\nvalue = [1, 0, 5]\nclass = R", fillcolor="#9a61ea"] ;
30 -> 31 ;
32 [label="gini = 0.0\nsamples = 4\nvalue = [0, 0, 4]\nclass = R", fillcolor="#8139e5"] ;
31 -> 32 ;
33 [label="RW <= 3.5\ngini = 0.5\nsamples = 2\nvalue = [1, 0, 1]\nclass = B", fillcolor="#ffffff"] ;
31 -> 33 ;
34 [label="gini = 0.0\nsamples = 1\nvalue = [0, 0, 1]\nclass = R", fillcolor="#8139e5"] ;
33 -> 34 ;
35 [label="gini = 0.0\nsamples = 1\nvalue = [1, 0, 0]\nclass = B", fillcolor="#e58139"] ;
33 -> 35 ;
36 [label="RD <= 1.5\ngini = 0.643\nsamples = 14\nvalue = [6, 3, 5]\nclass = B", fillcolor="#fcf1e9"] ;
30 -> 36 ;
37 [label="LW <= 1.5\ngini = 0.612\nsamples = 7\nvalue = [3, 3, 1]\nclass = B", fillcolor="#ffffff"] ;
36 -> 37 ;
38 [label="LD <= 3.5\ngini = 0.375\nsamples = 4\nvalue = [3, 0, 1]\nclass = B", fillcolor="#eeab7b"] ;
37 -> 38 ;
39 [label="RW <= 3.5\ngini = 0.5\nsamples = 2\nvalue = [1, 0, 1]\nclass = B", fillcolor="#ffffff"] ;
38 -> 39 ;
40 [label="gini = 0.0\nsamples = 1\nvalue = [1, 0, 0]\nclass = B", fillcolor="#e58139"] ;
39 -> 40 ;
41 [label="gini = 0.0\nsamples = 1\nvalue = [0, 0, 1]\nclass = R", fillcolor="#8139e5"] ;
39 -> 41 ;
42 [label="gini = 0.0\nsamples = 2\nvalue = [2, 0, 0]\nclass = B", fillcolor="#e58139"] ;
38 -> 42 ;
43 [label="gini = 0.0\nsamples = 3\nvalue = [0, 3, 0]\nclass = L", fillcolor="#39e581"] ;
37 -> 43 ;
44 [label="LW <= 1.5\ngini = 0.49\nsamples = 7\nvalue = [3, 0, 4]\nclass = R", fillcolor="#e0cef8"] ;
36 -> 44 ;
45 [label="gini = 0.0\nsamples = 2\nvalue = [0, 0, 2]\nclass = R", fillcolor="#8139e5"] ;
44 -> 45 ;
46 [label="RW <= 4.5\ngini = 0.48\nsamples = 5\nvalue = [3, 0, 2]\nclass = B", fillcolor="#f6d5bd"] ;
44 -> 46 ;
47 [label="gini = 0.0\nsamples = 2\nvalue = [2, 0, 0]\nclass = B", fillcolor="#e58139"] ;
46 -> 47 ;
48 [label="LD <= 4.5\ngini = 0.444\nsamples = 3\nvalue = [1, 0, 2]\nclass = R", fillcolor="#c09cf2"] ;
46 -> 48 ;
49 [label="gini = 0.0\nsamples = 2\nvalue = [0, 0, 2]\nclass = R", fillcolor="#8139e5"] ;
48 -> 49 ;
50 [label="gini = 0.0\nsamples = 1\nvalue = [1, 0, 0]\nclass = B", fillcolor="#e58139"] ;
48 -> 50 ;
51 [label="gini = 0.0\nsamples = 16\nvalue = [0, 0, 16]\nclass = R", fillcolor="#8139e5"] ;
29 -> 51 ;
52 [label="RD <= 3.5\ngini = 0.618\nsamples = 90\nvalue = [28, 45, 17]\nclass = L", fillcolor="#c9f8dc"] ;
0 -> 52 [labeldistance=2.5, labelangle=-45, headlabel="False"] ;
53 [label="LD <= 3.5\ngini = 0.477\nsamples = 51\nvalue = [14, 34, 3]\nclass = L", fillcolor="#94f1bb"] ;
52 -> 53 ;
54 [label="RW <= 2.5\ngini = 0.58\nsamples = 30\nvalue = [12, 15, 3]\nclass = L", fillcolor="#defbea"] ;
53 -> 54 ;
55 [label="RD <= 1.5\ngini = 0.32\nsamples = 15\nvalue = [3, 12, 0]\nclass = L", fillcolor="#6aeca0"] ;
54 -> 55 ;
56 [label="gini = 0.0\nsamples = 4\nvalue = [0, 4, 0]\nclass = L", fillcolor="#39e581"] ;
55 -> 56 ;
57 [label="LW <= 3.5\ngini = 0.397\nsamples = 11\nvalue = [3, 8, 0]\nclass = L", fillcolor="#83efb0"] ;
55 -> 57 ;
58 [label="RD <= 2.5\ngini = 0.5\nsamples = 4\nvalue = [2, 2, 0]\nclass = B", fillcolor="#ffffff"] ;
57 -> 58 ;
59 [label="gini = 0.0\nsamples = 1\nvalue = [0, 1, 0]\nclass = L", fillcolor="#39e581"] ;
58 -> 59 ;
60 [label="LD <= 1.5\ngini = 0.444\nsamples = 3\nvalue = [2, 1, 0]\nclass = B", fillcolor="#f2c09c"] ;
58 -> 60 ;
61 [label="gini = 0.0\nsamples = 1\nvalue = [1, 0, 0]\nclass = B", fillcolor="#e58139"] ;
60 -> 61 ;
62 [label="RW <= 1.5\ngini = 0.5\nsamples = 2\nvalue = [1, 1, 0]\nclass = B", fillcolor="#ffffff"] ;
60 -> 62 ;
63 [label="gini = 0.0\nsamples = 1\nvalue = [0, 1, 0]\nclass = L", fillcolor="#39e581"] ;
62 -> 63 ;
64 [label="gini = 0.0\nsamples = 1\nvalue = [1, 0, 0]\nclass = B", fillcolor="#e58139"] ;
62 -> 64 ;
65 [label="RW <= 1.5\ngini = 0.245\nsamples = 7\nvalue = [1, 6, 0]\nclass = L", fillcolor="#5ae996"] ;
57 -> 65 ;
66 [label="gini = 0.0\nsamples = 4\nvalue = [0, 4, 0]\nclass = L", fillcolor="#39e581"] ;
65 -> 66 ;
67 [label="LD <= 1.5\ngini = 0.444\nsamples = 3\nvalue = [1, 2, 0]\nclass = L", fillcolor="#9cf2c0"] ;
65 -> 67 ;
68 [label="LW <= 4.5\ngini = 0.5\nsamples = 2\nvalue = [1, 1, 0]\nclass = B", fillcolor="#ffffff"] ;
67 -> 68 ;
69 [label="gini = 0.0\nsamples = 1\nvalue = [1, 0, 0]\nclass = B", fillcolor="#e58139"] ;
68 -> 69 ;
70 [label="gini = 0.0\nsamples = 1\nvalue = [0, 1, 0]\nclass = L", fillcolor="#39e581"] ;
68 -> 70 ;
71 [label="gini = 0.0\nsamples = 1\nvalue = [0, 1, 0]\nclass = L", fillcolor="#39e581"] ;
67 -> 71 ;
72 [label="RD <= 1.5\ngini = 0.56\nsamples = 15\nvalue = [9, 3, 3]\nclass = B", fillcolor="#f2c09c"] ;
54 -> 72 ;
73 [label="LD <= 1.5\ngini = 0.48\nsamples = 5\nvalue = [3, 2, 0]\nclass = B", fillcolor="#f6d5bd"] ;
72 -> 73 ;
74 [label="gini = 0.0\nsamples = 3\nvalue = [3, 0, 0]\nclass = B", fillcolor="#e58139"] ;
73 -> 74 ;
75 [label="gini = 0.0\nsamples = 2\nvalue = [0, 2, 0]\nclass = L", fillcolor="#39e581"] ;
73 -> 75 ;
76 [label="LD <= 1.5\ngini = 0.54\nsamples = 10\nvalue = [6, 1, 3]\nclass = B", fillcolor="#f4c9aa"] ;
72 -> 76 ;
77 [label="gini = 0.0\nsamples = 1\nvalue = [0, 0, 1]\nclass = R", fillcolor="#8139e5"] ;
76 -> 77 ;
78 [label="LW <= 3.5\ngini = 0.494\nsamples = 9\nvalue = [6, 1, 2]\nclass = B", fillcolor="#f0b78e"] ;
76 -> 78 ;
79 [label="RW <= 3.5\ngini = 0.5\nsamples = 4\nvalue = [2, 0, 2]\nclass = B", fillcolor="#ffffff"] ;
78 -> 79 ;
80 [label="gini = 0.0\nsamples = 2\nvalue = [2, 0, 0]\nclass = B", fillcolor="#e58139"] ;
79 -> 80 ;
81 [label="gini = 0.0\nsamples = 2\nvalue = [0, 0, 2]\nclass = R", fillcolor="#8139e5"] ;
79 -> 81 ;
82 [label="RW <= 4.5\ngini = 0.32\nsamples = 5\nvalue = [4, 1, 0]\nclass = B", fillcolor="#eca06a"] ;
78 -> 82 ;
83 [label="LW <= 4.5\ngini = 0.444\nsamples = 3\nvalue = [2, 1, 0]\nclass = B", fillcolor="#f2c09c"] ;
82 -> 83 ;
84 [label="gini = 0.0\nsamples = 2\nvalue = [2, 0, 0]\nclass = B", fillcolor="#e58139"] ;
83 -> 84 ;
85 [label="gini = 0.0\nsamples = 1\nvalue = [0, 1, 0]\nclass = L", fillcolor="#39e581"] ;
83 -> 85 ;
86 [label="gini = 0.0\nsamples = 2\nvalue = [2, 0, 0]\nclass = B", fillcolor="#e58139"] ;
82 -> 86 ;
87 [label="RD <= 2.5\ngini = 0.172\nsamples = 21\nvalue = [2, 19, 0]\nclass = L", fillcolor="#4ee88e"] ;
53 -> 87 ;
88 [label="gini = 0.0\nsamples = 13\nvalue = [0, 13, 0]\nclass = L", fillcolor="#39e581"] ;
87 -> 88 ;
89 [label="RW <= 3.5\ngini = 0.375\nsamples = 8\nvalue = [2, 6, 0]\nclass = L", fillcolor="#7beeab"] ;
87 -> 89 ;
90 [label="gini = 0.0\nsamples = 5\nvalue = [0, 5, 0]\nclass = L", fillcolor="#39e581"] ;
89 -> 90 ;
91 [label="LD <= 4.5\ngini = 0.444\nsamples = 3\nvalue = [2, 1, 0]\nclass = B", fillcolor="#f2c09c"] ;
89 -> 91 ;
92 [label="gini = 0.0\nsamples = 1\nvalue = [1, 0, 0]\nclass = B", fillcolor="#e58139"] ;
91 -> 92 ;
93 [label="RW <= 4.5\ngini = 0.5\nsamples = 2\nvalue = [1, 1, 0]\nclass = B", fillcolor="#ffffff"] ;
91 -> 93 ;
94 [label="gini = 0.0\nsamples = 1\nvalue = [0, 1, 0]\nclass = L", fillcolor="#39e581"] ;
93 -> 94 ;
95 [label="gini = 0.0\nsamples = 1\nvalue = [1, 0, 0]\nclass = B", fillcolor="#e58139"] ;
93 -> 95 ;
96 [label="LD <= 3.5\ngini = 0.663\nsamples = 39\nvalue = [14, 11, 14]\nclass = B", fillcolor="#ffffff"] ;
52 -> 96 ;
97 [label="LW <= 3.5\ngini = 0.526\nsamples = 21\nvalue = [6, 2, 13]\nclass = R", fillcolor="#c4a3f3"] ;
96 -> 97 ;
98 [label="LD <= 2.5\ngini = 0.245\nsamples = 7\nvalue = [0, 1, 6]\nclass = R", fillcolor="#965ae9"] ;
97 -> 98 ;
99 [label="gini = 0.0\nsamples = 5\nvalue = [0, 0, 5]\nclass = R", fillcolor="#8139e5"] ;
98 -> 99 ;
100 [label="RW <= 3.0\ngini = 0.5\nsamples = 2\nvalue = [0, 1, 1]\nclass = L", fillcolor="#ffffff"] ;
98 -> 100 ;
101 [label="gini = 0.0\nsamples = 1\nvalue = [0, 1, 0]\nclass = L", fillcolor="#39e581"] ;
100 -> 101 ;
102 [label="gini = 0.0\nsamples = 1\nvalue = [0, 0, 1]\nclass = R", fillcolor="#8139e5"] ;
100 -> 102 ;
103 [label="RW <= 1.5\ngini = 0.561\nsamples = 14\nvalue = [6, 1, 7]\nclass = R", fillcolor="#efe6fc"] ;
97 -> 103 ;
104 [label="LD <= 1.5\ngini = 0.444\nsamples = 3\nvalue = [2, 1, 0]\nclass = B", fillcolor="#f2c09c"] ;
103 -> 104 ;
105 [label="gini = 0.0\nsamples = 2\nvalue = [2, 0, 0]\nclass = B", fillcolor="#e58139"] ;
104 -> 105 ;
106 [label="gini = 0.0\nsamples = 1\nvalue = [0, 1, 0]\nclass = L", fillcolor="#39e581"] ;
104 -> 106 ;
107 [label="LD <= 1.5\ngini = 0.463\nsamples = 11\nvalue = [4, 0, 7]\nclass = R", fillcolor="#c9aaf4"] ;
103 -> 107 ;
108 [label="gini = 0.0\nsamples = 5\nvalue = [0, 0, 5]\nclass = R", fillcolor="#8139e5"] ;
107 -> 108 ;
109 [label="LW <= 4.5\ngini = 0.444\nsamples = 6\nvalue = [4, 0, 2]\nclass = B", fillcolor="#f2c09c"] ;
107 -> 109 ;
110 [label="RD <= 4.5\ngini = 0.5\nsamples = 4\nvalue = [2, 0, 2]\nclass = B", fillcolor="#ffffff"] ;
109 -> 110 ;
111 [label="gini = 0.0\nsamples = 2\nvalue = [2, 0, 0]\nclass = B", fillcolor="#e58139"] ;
110 -> 111 ;
112 [label="gini = 0.0\nsamples = 2\nvalue = [0, 0, 2]\nclass = R", fillcolor="#8139e5"] ;
110 -> 112 ;
113 [label="gini = 0.0\nsamples = 2\nvalue = [2, 0, 0]\nclass = B", fillcolor="#e58139"] ;
109 -> 113 ;
114 [label="RW <= 3.5\ngini = 0.549\nsamples = 18\nvalue = [8, 9, 1]\nclass = L", fillcolor="#ebfcf2"] ;
96 -> 114 ;
115 [label="LW <= 3.5\ngini = 0.32\nsamples = 10\nvalue = [2, 8, 0]\nclass = L", fillcolor="#6aeca0"] ;
114 -> 115 ;
116 [label="LD <= 4.5\ngini = 0.5\nsamples = 4\nvalue = [2, 2, 0]\nclass = B", fillcolor="#ffffff"] ;
115 -> 116 ;
117 [label="gini = 0.0\nsamples = 1\nvalue = [1, 0, 0]\nclass = B", fillcolor="#e58139"] ;
116 -> 117 ;
118 [label="RD <= 4.5\ngini = 0.444\nsamples = 3\nvalue = [1, 2, 0]\nclass = L", fillcolor="#9cf2c0"] ;
116 -> 118 ;
119 [label="gini = 0.0\nsamples = 1\nvalue = [0, 1, 0]\nclass = L", fillcolor="#39e581"] ;
118 -> 119 ;
120 [label="RW <= 2.0\ngini = 0.5\nsamples = 2\nvalue = [1, 1, 0]\nclass = B", fillcolor="#ffffff"] ;
118 -> 120 ;
121 [label="gini = 0.0\nsamples = 1\nvalue = [0, 1, 0]\nclass = L", fillcolor="#39e581"] ;
120 -> 121 ;
122 [label="gini = 0.0\nsamples = 1\nvalue = [1, 0, 0]\nclass = B", fillcolor="#e58139"] ;
120 -> 122 ;
123 [label="gini = 0.0\nsamples = 6\nvalue = [0, 6, 0]\nclass = L", fillcolor="#39e581"] ;
115 -> 123 ;
124 [label="RW <= 4.5\ngini = 0.406\nsamples = 8\nvalue = [6, 1, 1]\nclass = B", fillcolor="#eca572"] ;
114 -> 124 ;
125 [label="LD <= 4.5\ngini = 0.56\nsamples = 5\nvalue = [3, 1, 1]\nclass = B", fillcolor="#f2c09c"] ;
124 -> 125 ;
126 [label="LW <= 4.5\ngini = 0.444\nsamples = 3\nvalue = [2, 0, 1]\nclass = B", fillcolor="#f2c09c"] ;
125 -> 126 ;
127 [label="RD <= 4.5\ngini = 0.5\nsamples = 2\nvalue = [1, 0, 1]\nclass = B", fillcolor="#ffffff"] ;
126 -> 127 ;
128 [label="gini = 0.0\nsamples = 1\nvalue = [1, 0, 0]\nclass = B", fillcolor="#e58139"] ;
127 -> 128 ;
129 [label="gini = 0.0\nsamples = 1\nvalue = [0, 0, 1]\nclass = R", fillcolor="#8139e5"] ;
127 -> 129 ;
130 [label="gini = 0.0\nsamples = 1\nvalue = [1, 0, 0]\nclass = B", fillcolor="#e58139"] ;
126 -> 130 ;
131 [label="LW <= 4.5\ngini = 0.5\nsamples = 2\nvalue = [1, 1, 0]\nclass = B", fillcolor="#ffffff"] ;
125 -> 131 ;
132 [label="gini = 0.0\nsamples = 1\nvalue = [1, 0, 0]\nclass = B", fillcolor="#e58139"] ;
131 -> 132 ;
133 [label="gini = 0.0\nsamples = 1\nvalue = [0, 1, 0]\nclass = L", fillcolor="#39e581"] ;
131 -> 133 ;
134 [label="gini = 0.0\nsamples = 3\nvalue = [3, 0, 0]\nclass = B", fillcolor="#e58139"] ;
124 -> 134 ;
}