digraph Tree {
node [shape=box, style="filled, rounded", color="black", fontname=helvetica] ;
edge [fontname=helvetica] ;
0 [label="RD <= 2.5\ngini = 0.569\nsamples = 625\nvalue = [49, 288, 288]\nclass = R", fillcolor="#ffffff"] ;
1 [label="LD <= 1.5\ngini = 0.478\nsamples = 250\nvalue = [21, 169, 60]\nclass = R", fillcolor="#8df0b7"] ;
0 -> 1 [labeldistance=2.5, labelangle=45, headlabel="True"] ;
2 [label="RW <= 2.5\ngini = 0.566\nsamples = 50\nvalue = [7, 14, 29]\nclass = L", fillcolor="#caadf4"] ;
1 -> 2 ;
3 [label="LW <= 2.5\ngini = 0.595\nsamples = 20\nvalue = [4, 11, 5]\nclass = R", fillcolor="#b0f5cd"] ;
2 -> 3 ;
4 [label="RD <= 1.5\ngini = 0.594\nsamples = 8\nvalue = [3, 1, 4]\nclass = L", fillcolor="#e6d7fa"] ;
3 -> 4 ;
5 [label="LW <= 1.5\ngini = 0.625\nsamples = 4\nvalue = [2, 1, 1]\nclass = B", fillcolor="#f6d5bd"] ;
4 -> 5 ;
6 [label="RW <= 1.5\ngini = 0.5\nsamples = 2\nvalue = [1, 0, 1]\nclass = B", fillcolor="#ffffff"] ;
5 -> 6 ;
7 [label="gini = 0.0\nsamples = 1\nvalue = [1, 0, 0]\nclass = B", fillcolor="#e58139"] ;
6 -> 7 ;
8 [label="gini = 0.0\nsamples = 1\nvalue = [0, 0, 1]\nclass = L", fillcolor="#8139e5"] ;
6 -> 8 ;
9 [label="RW <= 1.5\ngini = 0.5\nsamples = 2\nvalue = [1, 1, 0]\nclass = B", fillcolor="#ffffff"] ;
5 -> 9 ;
10 [label="gini = 0.0\nsamples = 1\nvalue = [0, 1, 0]\nclass = R", fillcolor="#39e581"] ;
9 -> 10 ;
11 [label="gini = 0.0\nsamples = 1\nvalue = [1, 0, 0]\nclass = B", fillcolor="#e58139"] ;
9 -> 11 ;
12 [label="RW <= 1.5\ngini = 0.375\nsamples = 4\nvalue = [1, 0, 3]\nclass = L", fillcolor="#ab7bee"] ;
4 -> 12 ;
13 [label="LW <= 1.5\ngini = 0.5\nsamples = 2\nvalue = [1, 0, 1]\nclass = B", fillcolor="#ffffff"] ;
12 -> 13 ;
14 [label="gini = 0.0\nsamples = 1\nvalue = [0, 0, 1]\nclass = L", fillcolor="#8139e5"] ;
13 -> 14 ;
15 [label="gini = 0.0\nsamples = 1\nvalue = [1, 0, 0]\nclass = B", fillcolor="#e58139"] ;
13 -> 15 ;
16 [label="gini = 0.0\nsamples = 2\nvalue = [0, 0, 2]\nclass = L", fillcolor="#8139e5"] ;
12 -> 16 ;
17 [label="RW <= 1.5\ngini = 0.292\nsamples = 12\nvalue = [1, 10, 1]\nclass = R", fillcolor="#5dea98"] ;
3 -> 17 ;
18 [label="gini = 0.0\nsamples = 6\nvalue = [0, 6, 0]\nclass = R", fillcolor="#39e581"] ;
17 -> 18 ;
19 [label="RD <= 1.5\ngini = 0.5\nsamples = 6\nvalue = [1, 4, 1]\nclass = R", fillcolor="#88efb3"] ;
17 -> 19 ;
20 [label="gini = 0.0\nsamples = 3\nvalue = [0, 3, 0]\nclass = R", fillcolor="#39e581"] ;
19 -> 20 ;
21 [label="LW <= 3.5\ngini = 0.667\nsamples = 3\nvalue = [1, 1, 1]\nclass = B", fillcolor="#ffffff"] ;
19 -> 21 ;
22 [label="gini = 0.0\nsamples = 1\nvalue = [0, 0, 1]\nclass = L", fillcolor="#8139e5"] ;
21 -> 22 ;
23 [label="LW <= 4.5\ngini = 0.5\nsamples = 2\nvalue = [1, 1, 0]\nclass = B", fillcolor="#ffffff"] ;
21 -> 23 ;
24 [label="gini = 0.0\nsamples = 1\nvalue = [1, 0, 0]\nclass = B", fillcolor="#e58139"] ;
23 -> 24 ;
25 [label="gini = 0.0\nsamples = 1\nvalue = [0, 1, 0]\nclass = R", fillcolor="#39e581"] ;
23 -> 25 ;
26 [label="RD <= 1.5\ngini = 0.34\nsamples = 30\nvalue = [3, 3, 24]\nclass = L", fillcolor="#9d65eb"] ;
2 -> 26 ;
27 [label="LW <= 3.5\ngini = 0.56\nsamples = 15\nvalue = [3, 3, 9]\nclass = L", fillcolor="#c09cf2"] ;
26 -> 27 ;
28 [label="RW <= 3.5\ngini = 0.198\nsamples = 9\nvalue = [1, 0, 8]\nclass = L", fillcolor="#9152e8"] ;
27 -> 28 ;
29 [label="LW <= 2.5\ngini = 0.444\nsamples = 3\nvalue = [1, 0, 2]\nclass = L", fillcolor="#c09cf2"] ;
28 -> 29 ;
30 [label="gini = 0.0\nsamples = 2\nvalue = [0, 0, 2]\nclass = L", fillcolor="#8139e5"] ;
29 -> 30 ;
31 [label="gini = 0.0\nsamples = 1\nvalue = [1, 0, 0]\nclass = B", fillcolor="#e58139"] ;
29 -> 31 ;
32 [label="gini = 0.0\nsamples = 6\nvalue = [0, 0, 6]\nclass = L", fillcolor="#8139e5"] ;
28 -> 32 ;
33 [label="RW <= 3.5\ngini = 0.611\nsamples = 6\nvalue = [2, 3, 1]\nclass = R", fillcolor="#cef8e0"] ;
27 -> 33 ;
34 [label="gini = 0.0\nsamples = 2\nvalue = [0, 2, 0]\nclass = R", fillcolor="#39e581"] ;
33 -> 34 ;
35 [label="LW <= 4.5\ngini = 0.625\nsamples = 4\nvalue = [2, 1, 1]\nclass = B", fillcolor="#f6d5bd"] ;
33 -> 35 ;
36 [label="RW <= 4.5\ngini = 0.5\nsamples = 2\nvalue = [1, 0, 1]\nclass = B", fillcolor="#ffffff"] ;
35 -> 36 ;
37 [label="gini = 0.0\nsamples = 1\nvalue = [1, 0, 0]\nclass = B", fillcolor="#e58139"] ;
36 -> 37 ;
38 [label="gini = 0.0\nsamples = 1\nvalue = [0, 0, 1]\nclass = L", fillcolor="#8139e5"] ;
36 -> 38 ;
39 [label="RW <= 4.5\ngini = 0.5\nsamples = 2\nvalue = [1, 1, 0]\nclass = B", fillcolor="#ffffff"] ;
35 -> 39 ;
40 [label="gini = 0.0\nsamples = 1\nvalue = [0, 1, 0]\nclass = R", fillcolor="#39e581"] ;
39 -> 40 ;
41 [label="gini = 0.0\nsamples = 1\nvalue = [1, 0, 0]\nclass = B", fillcolor="#e58139"] ;
39 -> 41 ;
42 [label="gini = 0.0\nsamples = 15\nvalue = [0, 0, 15]\nclass = L", fillcolor="#8139e5"] ;
26 -> 42 ;
43 [label="LW <= 1.5\ngini = 0.37\nsamples = 200\nvalue = [14, 155, 31]\nclass = R", fillcolor="#6eeca3"] ;
1 -> 43 ;
44 [label="RW <= 2.5\ngini = 0.605\nsamples = 40\nvalue = [6, 14, 20]\nclass = L", fillcolor="#e2d1f9"] ;
43 -> 44 ;
45 [label="LD <= 2.5\ngini = 0.477\nsamples = 16\nvalue = [3, 11, 2]\nclass = R", fillcolor="#85efb1"] ;
44 -> 45 ;
46 [label="RD <= 1.5\ngini = 0.625\nsamples = 4\nvalue = [2, 1, 1]\nclass = B", fillcolor="#f6d5bd"] ;
45 -> 46 ;
47 [label="RW <= 1.5\ngini = 0.5\nsamples = 2\nvalue = [1, 1, 0]\nclass = B", fillcolor="#ffffff"] ;
46 -> 47 ;
48 [label="gini = 0.0\nsamples = 1\nvalue = [0, 1, 0]\nclass = R", fillcolor="#39e581"] ;
47 -> 48 ;
49 [label="gini = 0.0\nsamples = 1\nvalue = [1, 0, 0]\nclass = B", fillcolor="#e58139"] ;
47 -> 49 ;
50 [label="RW <= 1.5\ngini = 0.5\nsamples = 2\nvalue = [1, 0, 1]\nclass = B", fillcolor="#ffffff"] ;
46 -> 50 ;
51 [label="gini = 0.0\nsamples = 1\nvalue = [1, 0, 0]\nclass = B", fillcolor="#e58139"] ;
50 -> 51 ;
52 [label="gini = 0.0\nsamples = 1\nvalue = [0, 0, 1]\nclass = L", fillcolor="#8139e5"] ;
50 -> 52 ;
53 [label="RD <= 1.5\ngini = 0.292\nsamples = 12\nvalue = [1, 10, 1]\nclass = R", fillcolor="#5dea98"] ;
45 -> 53 ;
54 [label="gini = 0.0\nsamples = 6\nvalue = [0, 6, 0]\nclass = R", fillcolor="#39e581"] ;
53 -> 54 ;
55 [label="RW <= 1.5\ngini = 0.5\nsamples = 6\nvalue = [1, 4, 1]\nclass = R", fillcolor="#88efb3"] ;
53 -> 55 ;
56 [label="gini = 0.0\nsamples = 3\nvalue = [0, 3, 0]\nclass = R", fillcolor="#39e581"] ;
55 -> 56 ;
57 [label="LD <= 3.5\ngini = 0.667\nsamples = 3\nvalue = [1, 1, 1]\nclass = B", fillcolor="#ffffff"] ;
55 -> 57 ;
58 [label="gini = 0.0\nsamples = 1\nvalue = [0, 0, 1]\nclass = L", fillcolor="#8139e5"] ;
57 -> 58 ;
59 [label="LD <= 4.5\ngini = 0.5\nsamples = 2\nvalue = [1, 1, 0]\nclass = B", fillcolor="#ffffff"] ;
57 -> 59 ;
60 [label="gini = 0.0\nsamples = 1\nvalue = [1, 0, 0]\nclass = B", fillcolor="#e58139"] ;
59 -> 60 ;
61 [label="gini = 0.0\nsamples = 1\nvalue = [0, 1, 0]\nclass = R", fillcolor="#39e581"] ;
59 -> 61 ;
62 [label="RD <= 1.5\ngini = 0.406\nsamples = 24\nvalue = [3, 3, 18]\nclass = L", fillcolor="#a572ec"] ;
44 -> 62 ;
63 [label="LD <= 3.5\ngini = 0.625\nsamples = 12\nvalue = [3, 3, 6]\nclass = L", fillcolor="#d5bdf6"] ;
62 -> 63 ;
64 [label="RW <= 3.5\ngini = 0.278\nsamples = 6\nvalue = [1, 0, 5]\nclass = L", fillcolor="#9a61ea"] ;
63 -> 64 ;
65 [label="LD <= 2.5\ngini = 0.5\nsamples = 2\nvalue = [1, 0, 1]\nclass = B", fillcolor="#ffffff"] ;
64 -> 65 ;
66 [label="gini = 0.0\nsamples = 1\nvalue = [0, 0, 1]\nclass = L", fillcolor="#8139e5"] ;
65 -> 66 ;
67 [label="gini = 0.0\nsamples = 1\nvalue = [1, 0, 0]\nclass = B", fillcolor="#e58139"] ;
65 -> 67 ;
68 [label="gini = 0.0\nsamples = 4\nvalue = [0, 0, 4]\nclass = L", fillcolor="#8139e5"] ;
64 -> 68 ;
69 [label="RW <= 3.5\ngini = 0.611\nsamples = 6\nvalue = [2, 3, 1]\nclass = R", fillcolor="#cef8e0"] ;
63 -> 69 ;
70 [label="gini = 0.0\nsamples = 2\nvalue = [0, 2, 0]\nclass = R", fillcolor="#39e581"] ;
69 -> 70 ;
71 [label="RW <= 4.5\ngini = 0.625\nsamples = 4\nvalue = [2, 1, 1]\nclass = B", fillcolor="#f6d5bd"] ;
69 -> 71 ;
72 [label="LD <= 4.5\ngini = 0.5\nsamples = 2\nvalue = [1, 1, 0]\nclass = B", fillcolor="#ffffff"] ;
71 -> 72 ;
73 [label="gini = 0.0\nsamples = 1\nvalue = [1, 0, 0]\nclass = B", fillcolor="#e58139"] ;
72 -> 73 ;
74 [label="gini = 0.0\nsamples = 1\nvalue = [0, 1, 0]\nclass = R", fillcolor="#39e581"] ;
72 -> 74 ;
75 [label="LD <= 4.5\ngini = 0.5\nsamples = 2\nvalue = [1, 0, 1]\nclass = B", fillcolor="#ffffff"] ;
71 -> 75 ;
76 [label="gini = 0.0\nsamples = 1\nvalue = [0, 0, 1]\nclass = L", fillcolor="#8139e5"] ;
75 -> 76 ;
77 [label="gini = 0.0\nsamples = 1\nvalue = [1, 0, 0]\nclass = B", fillcolor="#e58139"] ;
75 -> 77 ;
78 [label="gini = 0.0\nsamples = 12\nvalue = [0, 0, 12]\nclass = L", fillcolor="#8139e5"] ;
62 -> 78 ;
79 [label="LW <= 2.5\ngini = 0.216\nsamples = 160\nvalue = [8, 141, 11]\nclass = R", fillcolor="#52e891"] ;
43 -> 79 ;
80 [label="RW <= 3.5\ngini = 0.464\nsamples = 40\nvalue = [5, 28, 7]\nclass = R", fillcolor="#81eeaf"] ;
79 -> 80 ;
81 [label="LD <= 3.5\ngini = 0.226\nsamples = 24\nvalue = [2, 21, 1]\nclass = R", fillcolor="#54e992"] ;
80 -> 81 ;
82 [label="RD <= 1.5\ngini = 0.403\nsamples = 12\nvalue = [2, 9, 1]\nclass = R", fillcolor="#74eda7"] ;
81 -> 82 ;
83 [label="gini = 0.0\nsamples = 6\nvalue = [0, 6, 0]\nclass = R", fillcolor="#39e581"] ;
82 -> 83 ;
84 [label="RW <= 1.5\ngini = 0.611\nsamples = 6\nvalue = [2, 3, 1]\nclass = R", fillcolor="#cef8e0"] ;
82 -> 84 ;
85 [label="gini = 0.0\nsamples = 2\nvalue = [0, 2, 0]\nclass = R", fillcolor="#39e581"] ;
84 -> 85 ;
86 [label="LD <= 2.5\ngini = 0.625\nsamples = 4\nvalue = [2, 1, 1]\nclass = B", fillcolor="#f6d5bd"] ;
84 -> 86 ;
87 [label="RW <= 2.5\ngini = 0.5\nsamples = 2\nvalue = [1, 0, 1]\nclass = B", fillcolor="#ffffff"] ;
86 -> 87 ;
88 [label="gini = 0.0\nsamples = 1\nvalue = [1, 0, 0]\nclass = B", fillcolor="#e58139"] ;
87 -> 88 ;
89 [label="gini = 0.0\nsamples = 1\nvalue = [0, 0, 1]\nclass = L", fillcolor="#8139e5"] ;
87 -> 89 ;
90 [label="RW <= 2.5\ngini = 0.5\nsamples = 2\nvalue = [1, 1, 0]\nclass = B", fillcolor="#ffffff"] ;
86 -> 90 ;
91 [label="gini = 0.0\nsamples = 1\nvalue = [0, 1, 0]\nclass = R", fillcolor="#39e581"] ;
90 -> 91 ;
92 [label="gini = 0.0\nsamples = 1\nvalue = [1, 0, 0]\nclass = B", fillcolor="#e58139"] ;
90 -> 92 ;
93 [label="gini = 0.0\nsamples = 12\nvalue = [0, 12, 0]\nclass = R", fillcolor="#39e581"] ;
81 -> 93 ;
94 [label="RD <= 1.5\ngini = 0.633\nsamples = 16\nvalue = [3, 7, 6]\nclass = R", fillcolor="#ebfcf2"] ;
80 -> 94 ;
95 [label="LD <= 2.5\ngini = 0.406\nsamples = 8\nvalue = [1, 6, 1]\nclass = R", fillcolor="#72eca5"] ;
94 -> 95 ;
96 [label="RW <= 4.5\ngini = 0.5\nsamples = 2\nvalue = [1, 0, 1]\nclass = B", fillcolor="#ffffff"] ;
95 -> 96 ;
97 [label="gini = 0.0\nsamples = 1\nvalue = [1, 0, 0]\nclass = B", fillcolor="#e58139"] ;
96 -> 97 ;
98 [label="gini = 0.0\nsamples = 1\nvalue = [0, 0, 1]\nclass = L", fillcolor="#8139e5"] ;
96 -> 98 ;
99 [label="gini = 0.0\nsamples = 6\nvalue = [0, 6, 0]\nclass = R", fillcolor="#39e581"] ;
95 -> 99 ;
100 [label="LD <= 3.5\ngini = 0.531\nsamples = 8\nvalue = [2, 1, 5]\nclass = L", fillcolor="#c09cf2"] ;
94 -> 100 ;
101 [label="gini = 0.0\nsamples = 4\nvalue = [0, 0, 4]\nclass = L", fillcolor="#8139e5"] ;
100 -> 101 ;
102 [label="LD <= 4.5\ngini = 0.625\nsamples = 4\nvalue = [2, 1, 1]\nclass = B", fillcolor="#f6d5bd"] ;
100 -> 102 ;
103 [label="RW <= 4.5\ngini = 0.5\nsamples = 2\nvalue = [1, 0, 1]\nclass = B", fillcolor="#ffffff"] ;
102 -> 103 ;
104 [label="gini = 0.0\nsamples = 1\nvalue = [1, 0, 0]\nclass = B", fillcolor="#e58139"] ;
103 -> 104 ;
105 [label="gini = 0.0\nsamples = 1\nvalue = [0, 0, 1]\nclass = L", fillcolor="#8139e5"] ;
103 -> 105 ;
106 [label="RW <= 4.5\ngini = 0.5\nsamples = 2\nvalue = [1, 1, 0]\nclass = B", fillcolor="#ffffff"] ;
102 -> 106 ;
107 [label="gini = 0.0\nsamples = 1\nvalue = [0, 1, 0]\nclass = R", fillcolor="#39e581"] ;
106 -> 107 ;
108 [label="gini = 0.0\nsamples = 1\nvalue = [1, 0, 0]\nclass = B", fillcolor="#e58139"] ;
106 -> 108 ;
109 [label="LD <= 2.5\ngini = 0.112\nsamples = 120\nvalue = [3, 113, 4]\nclass = R", fillcolor="#45e789"] ;
79 -> 109 ;
110 [label="RD <= 1.5\ngini = 0.34\nsamples = 30\nvalue = [3, 24, 3]\nclass = R", fillcolor="#65eb9d"] ;
109 -> 110 ;
111 [label="gini = 0.0\nsamples = 15\nvalue = [0, 15, 0]\nclass = R", fillcolor="#39e581"] ;
110 -> 111 ;
112 [label="RW <= 3.5\ngini = 0.56\nsamples = 15\nvalue = [3, 9, 3]\nclass = R", fillcolor="#9cf2c0"] ;
110 -> 112 ;
113 [label="LW <= 3.5\ngini = 0.198\nsamples = 9\nvalue = [1, 8, 0]\nclass = R", fillcolor="#52e891"] ;
112 -> 113 ;
114 [label="RW <= 2.5\ngini = 0.444\nsamples = 3\nvalue = [1, 2, 0]\nclass = R", fillcolor="#9cf2c0"] ;
113 -> 114 ;
115 [label="gini = 0.0\nsamples = 2\nvalue = [0, 2, 0]\nclass = R", fillcolor="#39e581"] ;
114 -> 115 ;
116 [label="gini = 0.0\nsamples = 1\nvalue = [1, 0, 0]\nclass = B", fillcolor="#e58139"] ;
114 -> 116 ;
117 [label="gini = 0.0\nsamples = 6\nvalue = [0, 6, 0]\nclass = R", fillcolor="#39e581"] ;
113 -> 117 ;
118 [label="LW <= 3.5\ngini = 0.611\nsamples = 6\nvalue = [2, 1, 3]\nclass = L", fillcolor="#e0cef8"] ;
112 -> 118 ;
119 [label="gini = 0.0\nsamples = 2\nvalue = [0, 0, 2]\nclass = L", fillcolor="#8139e5"] ;
118 -> 119 ;
120 [label="LW <= 4.5\ngini = 0.625\nsamples = 4\nvalue = [2, 1, 1]\nclass = B", fillcolor="#f6d5bd"] ;
118 -> 120 ;
121 [label="RW <= 4.5\ngini = 0.5\nsamples = 2\nvalue = [1, 0, 1]\nclass = B", fillcolor="#ffffff"] ;
120 -> 121 ;
122 [label="gini = 0.0\nsamples = 1\nvalue = [1, 0, 0]\nclass = B", fillcolor="#e58139"] ;
121 -> 122 ;
123 [label="gini = 0.0\nsamples = 1\nvalue = [0, 0, 1]\nclass = L", fillcolor="#8139e5"] ;
121 -> 123 ;
124 [label="RW <= 4.5\ngini = 0.5\nsamples = 2\nvalue = [1, 1, 0]\nclass = B", fillcolor="#ffffff"] ;
120 -> 124 ;
125 [label="gini = 0.0\nsamples = 1\nvalue = [0, 1, 0]\nclass = R", fillcolor="#39e581"] ;
124 -> 125 ;
126 [label="gini = 0.0\nsamples = 1\nvalue = [1, 0, 0]\nclass = B", fillcolor="#e58139"] ;
124 -> 126 ;
127 [label="RW <= 4.5\ngini = 0.022\nsamples = 90\nvalue = [0, 89, 1]\nclass = R", fillcolor="#3be582"] ;
109 -> 127 ;
128 [label="gini = 0.0\nsamples = 72\nvalue = [0, 72, 0]\nclass = R", fillcolor="#39e581"] ;
127 -> 128 ;
129 [label="LD <= 3.5\ngini = 0.105\nsamples = 18\nvalue = [0, 17, 1]\nclass = R", fillcolor="#45e788"] ;
127 -> 129 ;
130 [label="LW <= 3.5\ngini = 0.278\nsamples = 6\nvalue = [0, 5, 1]\nclass = R", fillcolor="#61ea9a"] ;
129 -> 130 ;
131 [label="RD <= 1.5\ngini = 0.5\nsamples = 2\nvalue = [0, 1, 1]\nclass = R", fillcolor="#ffffff"] ;
130 -> 131 ;
132 [label="gini = 0.0\nsamples = 1\nvalue = [0, 1, 0]\nclass = R", fillcolor="#39e581"] ;
131 -> 132 ;
133 [label="gini = 0.0\nsamples = 1\nvalue = [0, 0, 1]\nclass = L", fillcolor="#8139e5"] ;
131 -> 133 ;
134 [label="gini = 0.0\nsamples = 4\nvalue = [0, 4, 0]\nclass = R", fillcolor="#39e581"] ;
130 -> 134 ;
135 [label="gini = 0.0\nsamples = 12\nvalue = [0, 12, 0]\nclass = R", fillcolor="#39e581"] ;
129 -> 135 ;
136 [label="RW <= 2.5\ngini = 0.524\nsamples = 375\nvalue = [28, 119, 228]\nclass = L", fillcolor="#c9abf4"] ;
0 -> 136 [labeldistance=2.5, labelangle=-45, headlabel="False"] ;
137 [label="LW <= 2.5\ngini = 0.554\nsamples = 150\nvalue = [13, 84, 53]\nclass = R", fillcolor="#c0f7d7"] ;
136 -> 137 ;
138 [label="LD <= 2.5\ngini = 0.535\nsamples = 60\nvalue = [7, 16, 37]\nclass = L", fillcolor="#c3a0f3"] ;
137 -> 138 ;
139 [label="LW <= 1.5\ngini = 0.156\nsamples = 24\nvalue = [1, 1, 22]\nclass = L", fillcolor="#8c4ae7"] ;
138 -> 139 ;
140 [label="gini = 0.0\nsamples = 12\nvalue = [0, 0, 12]\nclass = L", fillcolor="#8139e5"] ;
139 -> 140 ;
141 [label="RW <= 1.5\ngini = 0.292\nsamples = 12\nvalue = [1, 1, 10]\nclass = L", fillcolor="#985dea"] ;
139 -> 141 ;
142 [label="LD <= 1.5\ngini = 0.5\nsamples = 6\nvalue = [1, 1, 4]\nclass = L", fillcolor="#b388ef"] ;
141 -> 142 ;
143 [label="gini = 0.0\nsamples = 3\nvalue = [0, 0, 3]\nclass = L", fillcolor="#8139e5"] ;
142 -> 143 ;
144 [label="RD <= 3.5\ngini = 0.667\nsamples = 3\nvalue = [1, 1, 1]\nclass = B", fillcolor="#ffffff"] ;
142 -> 144 ;
145 [label="gini = 0.0\nsamples = 1\nvalue = [0, 1, 0]\nclass = R", fillcolor="#39e581"] ;
144 -> 145 ;
146 [label="RD <= 4.5\ngini = 0.5\nsamples = 2\nvalue = [1, 0, 1]\nclass = B", fillcolor="#ffffff"] ;
144 -> 146 ;
147 [label="gini = 0.0\nsamples = 1\nvalue = [1, 0, 0]\nclass = B", fillcolor="#e58139"] ;
146 -> 147 ;
148 [label="gini = 0.0\nsamples = 1\nvalue = [0, 0, 1]\nclass = L", fillcolor="#8139e5"] ;
146 -> 148 ;
149 [label="gini = 0.0\nsamples = 6\nvalue = [0, 0, 6]\nclass = L", fillcolor="#8139e5"] ;
141 -> 149 ;
150 [label="RW <= 1.5\ngini = 0.625\nsamples = 36\nvalue = [6, 15, 15]\nclass = R", fillcolor="#ffffff"] ;
138 -> 150 ;
151 [label="LW <= 1.5\ngini = 0.5\nsamples = 18\nvalue = [3, 12, 3]\nclass = R", fillcolor="#88efb3"] ;
150 -> 151 ;
152 [label="LD <= 3.5\ngini = 0.667\nsamples = 9\nvalue = [3, 3, 3]\nclass = B", fillcolor="#ffffff"] ;
151 -> 152 ;
153 [label="RD <= 3.5\ngini = 0.444\nsamples = 3\nvalue = [1, 0, 2]\nclass = L", fillcolor="#c09cf2"] ;
152 -> 153 ;
154 [label="gini = 0.0\nsamples = 1\nvalue = [1, 0, 0]\nclass = B", fillcolor="#e58139"] ;
153 -> 154 ;
155 [label="gini = 0.0\nsamples = 2\nvalue = [0, 0, 2]\nclass = L", fillcolor="#8139e5"] ;
153 -> 155 ;
156 [label="RD <= 3.5\ngini = 0.611\nsamples = 6\nvalue = [2, 3, 1]\nclass = R", fillcolor="#cef8e0"] ;
152 -> 156 ;
157 [label="gini = 0.0\nsamples = 2\nvalue = [0, 2, 0]\nclass = R", fillcolor="#39e581"] ;
156 -> 157 ;
158 [label="RD <= 4.5\ngini = 0.625\nsamples = 4\nvalue = [2, 1, 1]\nclass = B", fillcolor="#f6d5bd"] ;
156 -> 158 ;
159 [label="LD <= 4.5\ngini = 0.5\nsamples = 2\nvalue = [1, 1, 0]\nclass = B", fillcolor="#ffffff"] ;
158 -> 159 ;
160 [label="gini = 0.0\nsamples = 1\nvalue = [1, 0, 0]\nclass = B", fillcolor="#e58139"] ;
159 -> 160 ;
161 [label="gini = 0.0\nsamples = 1\nvalue = [0, 1, 0]\nclass = R", fillcolor="#39e581"] ;
159 -> 161 ;
162 [label="LD <= 4.5\ngini = 0.5\nsamples = 2\nvalue = [1, 0, 1]\nclass = B", fillcolor="#ffffff"] ;
158 -> 162 ;
163 [label="gini = 0.0\nsamples = 1\nvalue = [0, 0, 1]\nclass = L", fillcolor="#8139e5"] ;
162 -> 163 ;
164 [label="gini = 0.0\nsamples = 1\nvalue = [1, 0, 0]\nclass = B", fillcolor="#e58139"] ;
162 -> 164 ;
165 [label="gini = 0.0\nsamples = 9\nvalue = [0, 9, 0]\nclass = R", fillcolor="#39e581"] ;
151 -> 165 ;
166 [label="LW <= 1.5\ngini = 0.5\nsamples = 18\nvalue = [3, 3, 12]\nclass = L", fillcolor="#b388ef"] ;
150 -> 166 ;
167 [label="gini = 0.0\nsamples = 9\nvalue = [0, 0, 9]\nclass = L", fillcolor="#8139e5"] ;
166 -> 167 ;
168 [label="LD <= 3.5\ngini = 0.667\nsamples = 9\nvalue = [3, 3, 3]\nclass = B", fillcolor="#ffffff"] ;
166 -> 168 ;
169 [label="RD <= 3.5\ngini = 0.444\nsamples = 3\nvalue = [1, 0, 2]\nclass = L", fillcolor="#c09cf2"] ;
168 -> 169 ;
170 [label="gini = 0.0\nsamples = 1\nvalue = [1, 0, 0]\nclass = B", fillcolor="#e58139"] ;
169 -> 170 ;
171 [label="gini = 0.0\nsamples = 2\nvalue = [0, 0, 2]\nclass = L", fillcolor="#8139e5"] ;
169 -> 171 ;
172 [label="RD <= 3.5\ngini = 0.611\nsamples = 6\nvalue = [2, 3, 1]\nclass = R", fillcolor="#cef8e0"] ;
168 -> 172 ;
173 [label="gini = 0.0\nsamples = 2\nvalue = [0, 2, 0]\nclass = R", fillcolor="#39e581"] ;
172 -> 173 ;
174 [label="RD <= 4.5\ngini = 0.625\nsamples = 4\nvalue = [2, 1, 1]\nclass = B", fillcolor="#f6d5bd"] ;
172 -> 174 ;
175 [label="LD <= 4.5\ngini = 0.5\nsamples = 2\nvalue = [1, 1, 0]\nclass = B", fillcolor="#ffffff"] ;
174 -> 175 ;
176 [label="gini = 0.0\nsamples = 1\nvalue = [1, 0, 0]\nclass = B", fillcolor="#e58139"] ;
175 -> 176 ;
177 [label="gini = 0.0\nsamples = 1\nvalue = [0, 1, 0]\nclass = R", fillcolor="#39e581"] ;
175 -> 177 ;
178 [label="LD <= 4.5\ngini = 0.5\nsamples = 2\nvalue = [1, 0, 1]\nclass = B", fillcolor="#ffffff"] ;
174 -> 178 ;
179 [label="gini = 0.0\nsamples = 1\nvalue = [0, 0, 1]\nclass = L", fillcolor="#8139e5"] ;
178 -> 179 ;
180 [label="gini = 0.0\nsamples = 1\nvalue = [1, 0, 0]\nclass = B", fillcolor="#e58139"] ;
178 -> 180 ;
181 [label="LD <= 1.5\ngini = 0.393\nsamples = 90\nvalue = [6, 68, 16]\nclass = R", fillcolor="#74eda6"] ;
137 -> 181 ;
182 [label="RW <= 1.5\ngini = 0.5\nsamples = 18\nvalue = [3, 3, 12]\nclass = L", fillcolor="#b388ef"] ;
181 -> 182 ;
183 [label="RD <= 3.5\ngini = 0.667\nsamples = 9\nvalue = [3, 3, 3]\nclass = B", fillcolor="#ffffff"] ;
182 -> 183 ;
184 [label="LW <= 3.5\ngini = 0.444\nsamples = 3\nvalue = [1, 2, 0]\nclass = R", fillcolor="#9cf2c0"] ;
183 -> 184 ;
185 [label="gini = 0.0\nsamples = 1\nvalue = [1, 0, 0]\nclass = B", fillcolor="#e58139"] ;
184 -> 185 ;
186 [label="gini = 0.0\nsamples = 2\nvalue = [0, 2, 0]\nclass = R", fillcolor="#39e581"] ;
184 -> 186 ;
187 [label="LW <= 3.5\ngini = 0.611\nsamples = 6\nvalue = [2, 1, 3]\nclass = L", fillcolor="#e0cef8"] ;
183 -> 187 ;
188 [label="gini = 0.0\nsamples = 2\nvalue = [0, 0, 2]\nclass = L", fillcolor="#8139e5"] ;
187 -> 188 ;
189 [label="RD <= 4.5\ngini = 0.625\nsamples = 4\nvalue = [2, 1, 1]\nclass = B", fillcolor="#f6d5bd"] ;
187 -> 189 ;
190 [label="LW <= 4.5\ngini = 0.5\nsamples = 2\nvalue = [1, 1, 0]\nclass = B", fillcolor="#ffffff"] ;
189 -> 190 ;
191 [label="gini = 0.0\nsamples = 1\nvalue = [1, 0, 0]\nclass = B", fillcolor="#e58139"] ;
190 -> 191 ;
192 [label="gini = 0.0\nsamples = 1\nvalue = [0, 1, 0]\nclass = R", fillcolor="#39e581"] ;
190 -> 192 ;
193 [label="LW <= 4.5\ngini = 0.5\nsamples = 2\nvalue = [1, 0, 1]\nclass = B", fillcolor="#ffffff"] ;
189 -> 193 ;
194 [label="gini = 0.0\nsamples = 1\nvalue = [0, 0, 1]\nclass = L", fillcolor="#8139e5"] ;
193 -> 194 ;
195 [label="gini = 0.0\nsamples = 1\nvalue = [1, 0, 0]\nclass = B", fillcolor="#e58139"] ;
193 -> 195 ;
196 [label="gini = 0.0\nsamples = 9\nvalue = [0, 0, 9]\nclass = L", fillcolor="#8139e5"] ;
182 -> 196 ;
197 [label="LD <= 2.5\ngini = 0.18\nsamples = 72\nvalue = [3, 65, 4]\nclass = R", fillcolor="#4de88e"] ;
181 -> 197 ;
198 [label="RW <= 1.5\ngini = 0.5\nsamples = 18\nvalue = [3, 12, 3]\nclass = R", fillcolor="#88efb3"] ;
197 -> 198 ;
199 [label="gini = 0.0\nsamples = 9\nvalue = [0, 9, 0]\nclass = R", fillcolor="#39e581"] ;
198 -> 199 ;
200 [label="RD <= 3.5\ngini = 0.667\nsamples = 9\nvalue = [3, 3, 3]\nclass = B", fillcolor="#ffffff"] ;
198 -> 200 ;
201 [label="LW <= 3.5\ngini = 0.444\nsamples = 3\nvalue = [1, 2, 0]\nclass = R", fillcolor="#9cf2c0"] ;
200 -> 201 ;
202 [label="gini = 0.0\nsamples = 1\nvalue = [1, 0, 0]\nclass = B", fillcolor="#e58139"] ;
201 -> 202 ;
203 [label="gini = 0.0\nsamples = 2\nvalue = [0, 2, 0]\nclass = R", fillcolor="#39e581"] ;
201 -> 203 ;
204 [label="LW <= 3.5\ngini = 0.611\nsamples = 6\nvalue = [2, 1, 3]\nclass = L", fillcolor="#e0cef8"] ;
200 -> 204 ;
205 [label="gini = 0.0\nsamples = 2\nvalue = [0, 0, 2]\nclass = L", fillcolor="#8139e5"] ;
204 -> 205 ;
206 [label="RD <= 4.5\ngini = 0.625\nsamples = 4\nvalue = [2, 1, 1]\nclass = B", fillcolor="#f6d5bd"] ;
204 -> 206 ;
207 [label="LW <= 4.5\ngini = 0.5\nsamples = 2\nvalue = [1, 1, 0]\nclass = B", fillcolor="#ffffff"] ;
206 -> 207 ;
208 [label="gini = 0.0\nsamples = 1\nvalue = [1, 0, 0]\nclass = B", fillcolor="#e58139"] ;
207 -> 208 ;
209 [label="gini = 0.0\nsamples = 1\nvalue = [0, 1, 0]\nclass = R", fillcolor="#39e581"] ;
207 -> 209 ;
210 [label="LW <= 4.5\ngini = 0.5\nsamples = 2\nvalue = [1, 0, 1]\nclass = B", fillcolor="#ffffff"] ;
206 -> 210 ;
211 [label="gini = 0.0\nsamples = 1\nvalue = [0, 0, 1]\nclass = L", fillcolor="#8139e5"] ;
210 -> 211 ;
212 [label="gini = 0.0\nsamples = 1\nvalue = [1, 0, 0]\nclass = B", fillcolor="#e58139"] ;
210 -> 212 ;
213 [label="LD <= 3.5\ngini = 0.036\nsamples = 54\nvalue = [0, 53, 1]\nclass = R", fillcolor="#3de583"] ;
197 -> 213 ;
214 [label="RD <= 4.5\ngini = 0.105\nsamples = 18\nvalue = [0, 17, 1]\nclass = R", fillcolor="#45e788"] ;
213 -> 214 ;
215 [label="gini = 0.0\nsamples = 12\nvalue = [0, 12, 0]\nclass = R", fillcolor="#39e581"] ;
214 -> 215 ;
216 [label="LW <= 3.5\ngini = 0.278\nsamples = 6\nvalue = [0, 5, 1]\nclass = R", fillcolor="#61ea9a"] ;
214 -> 216 ;
217 [label="RW <= 1.5\ngini = 0.5\nsamples = 2\nvalue = [0, 1, 1]\nclass = R", fillcolor="#ffffff"] ;
216 -> 217 ;
218 [label="gini = 0.0\nsamples = 1\nvalue = [0, 1, 0]\nclass = R", fillcolor="#39e581"] ;
217 -> 218 ;
219 [label="gini = 0.0\nsamples = 1\nvalue = [0, 0, 1]\nclass = L", fillcolor="#8139e5"] ;
217 -> 219 ;
220 [label="gini = 0.0\nsamples = 4\nvalue = [0, 4, 0]\nclass = R", fillcolor="#39e581"] ;
216 -> 220 ;
221 [label="gini = 0.0\nsamples = 36\nvalue = [0, 36, 0]\nclass = R", fillcolor="#39e581"] ;
213 -> 221 ;
222 [label="LW <= 3.5\ngini = 0.366\nsamples = 225\nvalue = [15, 35, 175]\nclass = L", fillcolor="#a26dec"] ;
136 -> 222 ;
223 [label="LW <= 2.5\ngini = 0.14\nsamples = 135\nvalue = [5, 5, 125]\nclass = L", fillcolor="#8b48e7"] ;
222 -> 223 ;
224 [label="LD <= 4.5\ngini = 0.022\nsamples = 90\nvalue = [0, 1, 89]\nclass = L", fillcolor="#823be5"] ;
223 -> 224 ;
225 [label="gini = 0.0\nsamples = 72\nvalue = [0, 0, 72]\nclass = L", fillcolor="#8139e5"] ;
224 -> 225 ;
226 [label="RW <= 3.5\ngini = 0.105\nsamples = 18\nvalue = [0, 1, 17]\nclass = L", fillcolor="#8845e7"] ;
224 -> 226 ;
227 [label="RD <= 3.5\ngini = 0.278\nsamples = 6\nvalue = [0, 1, 5]\nclass = L", fillcolor="#9a61ea"] ;
226 -> 227 ;
228 [label="LW <= 1.5\ngini = 0.5\nsamples = 2\nvalue = [0, 1, 1]\nclass = R", fillcolor="#ffffff"] ;
227 -> 228 ;
229 [label="gini = 0.0\nsamples = 1\nvalue = [0, 0, 1]\nclass = L", fillcolor="#8139e5"] ;
228 -> 229 ;
230 [label="gini = 0.0\nsamples = 1\nvalue = [0, 1, 0]\nclass = R", fillcolor="#39e581"] ;
228 -> 230 ;
231 [label="gini = 0.0\nsamples = 4\nvalue = [0, 0, 4]\nclass = L", fillcolor="#8139e5"] ;
227 -> 231 ;
232 [label="gini = 0.0\nsamples = 12\nvalue = [0, 0, 12]\nclass = L", fillcolor="#8139e5"] ;
226 -> 232 ;
233 [label="LD <= 3.5\ngini = 0.34\nsamples = 45\nvalue = [5, 4, 36]\nclass = L", fillcolor="#9d66eb"] ;
223 -> 233 ;
234 [label="RW <= 3.5\ngini = 0.071\nsamples = 27\nvalue = [1, 0, 26]\nclass = L", fillcolor="#8641e6"] ;
233 -> 234 ;
235 [label="RD <= 3.5\ngini = 0.198\nsamples = 9\nvalue = [1, 0, 8]\nclass = L", fillcolor="#9152e8"] ;
234 -> 235 ;
236 [label="LD <= 2.5\ngini = 0.444\nsamples = 3\nvalue = [1, 0, 2]\nclass = L", fillcolor="#c09cf2"] ;
235 -> 236 ;
237 [label="gini = 0.0\nsamples = 2\nvalue = [0, 0, 2]\nclass = L", fillcolor="#8139e5"] ;
236 -> 237 ;
238 [label="gini = 0.0\nsamples = 1\nvalue = [1, 0, 0]\nclass = B", fillcolor="#e58139"] ;
236 -> 238 ;
239 [label="gini = 0.0\nsamples = 6\nvalue = [0, 0, 6]\nclass = L", fillcolor="#8139e5"] ;
235 -> 239 ;
240 [label="gini = 0.0\nsamples = 18\nvalue = [0, 0, 18]\nclass = L", fillcolor="#8139e5"] ;
234 -> 240 ;
241 [label="RW <= 3.5\ngini = 0.593\nsamples = 18\nvalue = [4, 4, 10]\nclass = L", fillcolor="#c9aaf4"] ;
233 -> 241 ;
242 [label="RD <= 3.5\ngini = 0.611\nsamples = 6\nvalue = [2, 3, 1]\nclass = R", fillcolor="#cef8e0"] ;
241 -> 242 ;
243 [label="gini = 0.0\nsamples = 2\nvalue = [0, 2, 0]\nclass = R", fillcolor="#39e581"] ;
242 -> 243 ;
244 [label="RD <= 4.5\ngini = 0.625\nsamples = 4\nvalue = [2, 1, 1]\nclass = B", fillcolor="#f6d5bd"] ;
242 -> 244 ;
245 [label="LD <= 4.5\ngini = 0.5\nsamples = 2\nvalue = [1, 1, 0]\nclass = B", fillcolor="#ffffff"] ;
244 -> 245 ;
246 [label="gini = 0.0\nsamples = 1\nvalue = [1, 0, 0]\nclass = B", fillcolor="#e58139"] ;
245 -> 246 ;
247 [label="gini = 0.0\nsamples = 1\nvalue = [0, 1, 0]\nclass = R", fillcolor="#39e581"] ;
245 -> 247 ;
248 [label="LD <= 4.5\ngini = 0.5\nsamples = 2\nvalue = [1, 0, 1]\nclass = B", fillcolor="#ffffff"] ;
244 -> 248 ;
249 [label="gini = 0.0\nsamples = 1\nvalue = [0, 0, 1]\nclass = L", fillcolor="#8139e5"] ;
248 -> 249 ;
250 [label="gini = 0.0\nsamples = 1\nvalue = [1, 0, 0]\nclass = B", fillcolor="#e58139"] ;
248 -> 250 ;
251 [label="RD <= 3.5\ngini = 0.403\nsamples = 12\nvalue = [2, 1, 9]\nclass = L", fillcolor="#a774ed"] ;
241 -> 251 ;
252 [label="RW <= 4.5\ngini = 0.625\nsamples = 4\nvalue = [2, 1, 1]\nclass = B", fillcolor="#f6d5bd"] ;
251 -> 252 ;
253 [label="LD <= 4.5\ngini = 0.5\nsamples = 2\nvalue = [1, 1, 0]\nclass = B", fillcolor="#ffffff"] ;
252 -> 253 ;
254 [label="gini = 0.0\nsamples = 1\nvalue = [1, 0, 0]\nclass = B", fillcolor="#e58139"] ;
253 -> 254 ;
255 [label="gini = 0.0\nsamples = 1\nvalue = [0, 1, 0]\nclass = R", fillcolor="#39e581"] ;
253 -> 255 ;
256 [label="LD <= 4.5\ngini = 0.5\nsamples = 2\nvalue = [1, 0, 1]\nclass = B", fillcolor="#ffffff"] ;
252 -> 256 ;
257 [label="gini = 0.0\nsamples = 1\nvalue = [0, 0, 1]\nclass = L", fillcolor="#8139e5"] ;
256 -> 257 ;
258 [label="gini = 0.0\nsamples = 1\nvalue = [1, 0, 0]\nclass = B", fillcolor="#e58139"] ;
256 -> 258 ;
259 [label="gini = 0.0\nsamples = 8\nvalue = [0, 0, 8]\nclass = L", fillcolor="#8139e5"] ;
251 -> 259 ;
260 [label="LD <= 3.5\ngini = 0.568\nsamples = 90\nvalue = [10, 30, 50]\nclass = L", fillcolor="#d5bdf6"] ;
222 -> 260 ;
261 [label="LD <= 2.5\ngini = 0.291\nsamples = 54\nvalue = [4, 5, 45]\nclass = L", fillcolor="#985dea"] ;
260 -> 261 ;
262 [label="RD <= 3.5\ngini = 0.054\nsamples = 36\nvalue = [0, 1, 35]\nclass = L", fillcolor="#853fe6"] ;
261 -> 262 ;
263 [label="RW <= 3.5\ngini = 0.153\nsamples = 12\nvalue = [0, 1, 11]\nclass = L", fillcolor="#8c4be7"] ;
262 -> 263 ;
264 [label="LW <= 4.5\ngini = 0.375\nsamples = 4\nvalue = [0, 1, 3]\nclass = L", fillcolor="#ab7bee"] ;
263 -> 264 ;
265 [label="gini = 0.0\nsamples = 2\nvalue = [0, 0, 2]\nclass = L", fillcolor="#8139e5"] ;
264 -> 265 ;
266 [label="LD <= 1.5\ngini = 0.5\nsamples = 2\nvalue = [0, 1, 1]\nclass = R", fillcolor="#ffffff"] ;
264 -> 266 ;
267 [label="gini = 0.0\nsamples = 1\nvalue = [0, 0, 1]\nclass = L", fillcolor="#8139e5"] ;
266 -> 267 ;
268 [label="gini = 0.0\nsamples = 1\nvalue = [0, 1, 0]\nclass = R", fillcolor="#39e581"] ;
266 -> 268 ;
269 [label="gini = 0.0\nsamples = 8\nvalue = [0, 0, 8]\nclass = L", fillcolor="#8139e5"] ;
263 -> 269 ;
270 [label="gini = 0.0\nsamples = 24\nvalue = [0, 0, 24]\nclass = L", fillcolor="#8139e5"] ;
262 -> 270 ;
271 [label="RD <= 3.5\ngini = 0.593\nsamples = 18\nvalue = [4, 4, 10]\nclass = L", fillcolor="#c9aaf4"] ;
261 -> 271 ;
272 [label="RW <= 3.5\ngini = 0.611\nsamples = 6\nvalue = [2, 3, 1]\nclass = R", fillcolor="#cef8e0"] ;
271 -> 272 ;
273 [label="gini = 0.0\nsamples = 2\nvalue = [0, 2, 0]\nclass = R", fillcolor="#39e581"] ;
272 -> 273 ;
274 [label="RW <= 4.5\ngini = 0.625\nsamples = 4\nvalue = [2, 1, 1]\nclass = B", fillcolor="#f6d5bd"] ;
272 -> 274 ;
275 [label="LW <= 4.5\ngini = 0.5\nsamples = 2\nvalue = [1, 1, 0]\nclass = B", fillcolor="#ffffff"] ;
274 -> 275 ;
276 [label="gini = 0.0\nsamples = 1\nvalue = [1, 0, 0]\nclass = B", fillcolor="#e58139"] ;
275 -> 276 ;
277 [label="gini = 0.0\nsamples = 1\nvalue = [0, 1, 0]\nclass = R", fillcolor="#39e581"] ;
275 -> 277 ;
278 [label="LW <= 4.5\ngini = 0.5\nsamples = 2\nvalue = [1, 0, 1]\nclass = B", fillcolor="#ffffff"] ;
274 -> 278 ;
279 [label="gini = 0.0\nsamples = 1\nvalue = [0, 0, 1]\nclass = L", fillcolor="#8139e5"] ;
278 -> 279 ;
280 [label="gini = 0.0\nsamples = 1\nvalue = [1, 0, 0]\nclass = B", fillcolor="#e58139"] ;
278 -> 280 ;
281 [label="RW <= 3.5\ngini = 0.403\nsamples = 12\nvalue = [2, 1, 9]\nclass = L", fillcolor="#a774ed"] ;
271 -> 281 ;
282 [label="LW <= 4.5\ngini = 0.625\nsamples = 4\nvalue = [2, 1, 1]\nclass = B", fillcolor="#f6d5bd"] ;
281 -> 282 ;
283 [label="RD <= 4.5\ngini = 0.5\nsamples = 2\nvalue = [1, 0, 1]\nclass = B", fillcolor="#ffffff"] ;
282 -> 283 ;
284 [label="gini = 0.0\nsamples = 1\nvalue = [1, 0, 0]\nclass = B", fillcolor="#e58139"] ;
283 -> 284 ;
285 [label="gini = 0.0\nsamples = 1\nvalue = [0, 0, 1]\nclass = L", fillcolor="#8139e5"] ;
283 -> 285 ;
286 [label="RD <= 4.5\ngini = 0.5\nsamples = 2\nvalue = [1, 1, 0]\nclass = B", fillcolor="#ffffff"] ;
282 -> 286 ;
287 [label="gini = 0.0\nsamples = 1\nvalue = [0, 1, 0]\nclass = R", fillcolor="#39e581"] ;
286 -> 287 ;
288 [label="gini = 0.0\nsamples = 1\nvalue = [1, 0, 0]\nclass = B", fillcolor="#e58139"] ;
286 -> 288 ;
289 [label="gini = 0.0\nsamples = 8\nvalue = [0, 0, 8]\nclass = L", fillcolor="#8139e5"] ;
281 -> 289 ;
290 [label="RW <= 3.5\ngini = 0.471\nsamples = 36\nvalue = [6, 25, 5]\nclass = R", fillcolor="#82efaf"] ;
260 -> 290 ;
291 [label="gini = 0.0\nsamples = 12\nvalue = [0, 12, 0]\nclass = R", fillcolor="#39e581"] ;
290 -> 291 ;
292 [label="RD <= 3.5\ngini = 0.601\nsamples = 24\nvalue = [6, 13, 5]\nclass = R", fillcolor="#b2f5ce"] ;
290 -> 292 ;
293 [label="gini = 0.0\nsamples = 8\nvalue = [0, 8, 0]\nclass = R", fillcolor="#39e581"] ;
292 -> 293 ;
294 [label="LD <= 4.5\ngini = 0.664\nsamples = 16\nvalue = [6, 5, 5]\nclass = B", fillcolor="#fdf4ed"] ;
292 -> 294 ;
295 [label="LW <= 4.5\ngini = 0.594\nsamples = 8\nvalue = [3, 1, 4]\nclass = L", fillcolor="#e6d7fa"] ;
294 -> 295 ;
296 [label="RW <= 4.5\ngini = 0.375\nsamples = 4\nvalue = [1, 0, 3]\nclass = L", fillcolor="#ab7bee"] ;
295 -> 296 ;
297 [label="RD <= 4.5\ngini = 0.5\nsamples = 2\nvalue = [1, 0, 1]\nclass = B", fillcolor="#ffffff"] ;
296 -> 297 ;
298 [label="gini = 0.0\nsamples = 1\nvalue = [1, 0, 0]\nclass = B", fillcolor="#e58139"] ;
297 -> 298 ;
299 [label="gini = 0.0\nsamples = 1\nvalue = [0, 0, 1]\nclass = L", fillcolor="#8139e5"] ;
297 -> 299 ;
300 [label="gini = 0.0\nsamples = 2\nvalue = [0, 0, 2]\nclass = L", fillcolor="#8139e5"] ;
296 -> 300 ;
301 [label="RW <= 4.5\ngini = 0.625\nsamples = 4\nvalue = [2, 1, 1]\nclass = B", fillcolor="#f6d5bd"] ;
295 -> 301 ;
302 [label="RD <= 4.5\ngini = 0.5\nsamples = 2\nvalue = [1, 1, 0]\nclass = B", fillcolor="#ffffff"] ;
301 -> 302 ;
303 [label="gini = 0.0\nsamples = 1\nvalue = [0, 1, 0]\nclass = R", fillcolor="#39e581"] ;
302 -> 303 ;
304 [label="gini = 0.0\nsamples = 1\nvalue = [1, 0, 0]\nclass = B", fillcolor="#e58139"] ;
302 -> 304 ;
305 [label="RD <= 4.5\ngini = 0.5\nsamples = 2\nvalue = [1, 0, 1]\nclass = B", fillcolor="#ffffff"] ;
301 -> 305 ;
306 [label="gini = 0.0\nsamples = 1\nvalue = [1, 0, 0]\nclass = B", fillcolor="#e58139"] ;
305 -> 306 ;
307 [label="gini = 0.0\nsamples = 1\nvalue = [0, 0, 1]\nclass = L", fillcolor="#8139e5"] ;
305 -> 307 ;
308 [label="RD <= 4.5\ngini = 0.594\nsamples = 8\nvalue = [3, 4, 1]\nclass = R", fillcolor="#d7fae6"] ;
294 -> 308 ;
309 [label="LW <= 4.5\ngini = 0.375\nsamples = 4\nvalue = [1, 3, 0]\nclass = R", fillcolor="#7beeab"] ;
308 -> 309 ;
310 [label="RW <= 4.5\ngini = 0.5\nsamples = 2\nvalue = [1, 1, 0]\nclass = B", fillcolor="#ffffff"] ;
309 -> 310 ;
311 [label="gini = 0.0\nsamples = 1\nvalue = [0, 1, 0]\nclass = R", fillcolor="#39e581"] ;
310 -> 311 ;
312 [label="gini = 0.0\nsamples = 1\nvalue = [1, 0, 0]\nclass = B", fillcolor="#e58139"] ;
310 -> 312 ;
313 [label="gini = 0.0\nsamples = 2\nvalue = [0, 2, 0]\nclass = R", fillcolor="#39e581"] ;
309 -> 313 ;
314 [label="RW <= 4.5\ngini = 0.625\nsamples = 4\nvalue = [2, 1, 1]\nclass = B", fillcolor="#f6d5bd"] ;
308 -> 314 ;
315 [label="LW <= 4.5\ngini = 0.5\nsamples = 2\nvalue = [1, 1, 0]\nclass = B", fillcolor="#ffffff"] ;
314 -> 315 ;
316 [label="gini = 0.0\nsamples = 1\nvalue = [1, 0, 0]\nclass = B", fillcolor="#e58139"] ;
315 -> 316 ;
317 [label="gini = 0.0\nsamples = 1\nvalue = [0, 1, 0]\nclass = R", fillcolor="#39e581"] ;
315 -> 317 ;
318 [label="LW <= 4.5\ngini = 0.5\nsamples = 2\nvalue = [1, 0, 1]\nclass = B", fillcolor="#ffffff"] ;
314 -> 318 ;
319 [label="gini = 0.0\nsamples = 1\nvalue = [0, 0, 1]\nclass = L", fillcolor="#8139e5"] ;
318 -> 319 ;
320 [label="gini = 0.0\nsamples = 1\nvalue = [1, 0, 0]\nclass = B", fillcolor="#e58139"] ;
318 -> 320 ;
}