digraph Tree {
node [shape=box, style="filled, rounded", color="black", fontname=helvetica] ;
edge [fontname=helvetica] ;
0 [label="LW <= 2.5\ngini = 0.569\nsamples = 625\nvalue = [49, 288, 288]\nclass = R", fillcolor="#ffffff"] ;
1 [label="RW <= 1.5\ngini = 0.478\nsamples = 250\nvalue = [21, 60, 169]\nclass = L", fillcolor="#b78df0"] ;
0 -> 1 [labeldistance=2.5, labelangle=45, headlabel="True"] ;
2 [label="LW <= 1.5\ngini = 0.566\nsamples = 50\nvalue = [7, 29, 14]\nclass = R", fillcolor="#adf4ca"] ;
1 -> 2 ;
3 [label="gini = 0.64\nsamples = 25\nvalue = [5, 10, 10]\nclass = R", fillcolor="#ffffff"] ;
2 -> 3 ;
4 [label="gini = 0.39\nsamples = 25\nvalue = [2, 19, 4]\nclass = R", fillcolor="#72eca5"] ;
2 -> 4 ;
5 [label="RW <= 2.5\ngini = 0.37\nsamples = 200\nvalue = [14, 31, 155]\nclass = L", fillcolor="#a36eec"] ;
1 -> 5 ;
6 [label="LW <= 1.5\ngini = 0.566\nsamples = 50\nvalue = [7, 14, 29]\nclass = L", fillcolor="#caadf4"] ;
5 -> 6 ;
7 [label="gini = 0.39\nsamples = 25\nvalue = [2, 4, 19]\nclass = L", fillcolor="#a572ec"] ;
6 -> 7 ;
8 [label="gini = 0.64\nsamples = 25\nvalue = [5, 10, 10]\nclass = R", fillcolor="#ffffff"] ;
6 -> 8 ;
9 [label="LW <= 1.5\ngini = 0.279\nsamples = 150\nvalue = [7, 17, 126]\nclass = L", fillcolor="#985dea"] ;
5 -> 9 ;
10 [label="RW <= 3.5\ngini = 0.15\nsamples = 75\nvalue = [3, 3, 69]\nclass = L", fillcolor="#8c49e7"] ;
9 -> 10 ;
11 [label="gini = 0.218\nsamples = 25\nvalue = [1, 2, 22]\nclass = L", fillcolor="#9153e8"] ;
10 -> 11 ;
12 [label="RW <= 4.5\ngini = 0.114\nsamples = 50\nvalue = [2, 1, 47]\nclass = L", fillcolor="#8945e7"] ;
10 -> 12 ;
13 [label="gini = 0.15\nsamples = 25\nvalue = [1, 1, 23]\nclass = L", fillcolor="#8c49e7"] ;
12 -> 13 ;
14 [label="gini = 0.077\nsamples = 25\nvalue = [1, 0, 24]\nclass = L", fillcolor="#8641e6"] ;
12 -> 14 ;
15 [label="RW <= 3.5\ngini = 0.385\nsamples = 75\nvalue = [4, 14, 57]\nclass = L", fillcolor="#a673ed"] ;
9 -> 15 ;
16 [label="gini = 0.458\nsamples = 25\nvalue = [1, 7, 17]\nclass = L", fillcolor="#b991f1"] ;
15 -> 16 ;
17 [label="RW <= 4.5\ngini = 0.337\nsamples = 50\nvalue = [3, 7, 40]\nclass = L", fillcolor="#9e67eb"] ;
15 -> 17 ;
18 [label="gini = 0.39\nsamples = 25\nvalue = [2, 4, 19]\nclass = L", fillcolor="#a572ec"] ;
17 -> 18 ;
19 [label="gini = 0.278\nsamples = 25\nvalue = [1, 3, 21]\nclass = L", fillcolor="#985dea"] ;
17 -> 19 ;
20 [label="RW <= 2.5\ngini = 0.524\nsamples = 375\nvalue = [28, 228, 119]\nclass = R", fillcolor="#abf4c9"] ;
0 -> 20 [labeldistance=2.5, labelangle=-45, headlabel="False"] ;
21 [label="RW <= 1.5\ngini = 0.279\nsamples = 150\nvalue = [7, 126, 17]\nclass = R", fillcolor="#5dea98"] ;
20 -> 21 ;
22 [label="LW <= 3.5\ngini = 0.15\nsamples = 75\nvalue = [3, 69, 3]\nclass = R", fillcolor="#49e78c"] ;
21 -> 22 ;
23 [label="gini = 0.218\nsamples = 25\nvalue = [1, 22, 2]\nclass = R", fillcolor="#53e891"] ;
22 -> 23 ;
24 [label="LW <= 4.5\ngini = 0.114\nsamples = 50\nvalue = [2, 47, 1]\nclass = R", fillcolor="#45e789"] ;
22 -> 24 ;
25 [label="gini = 0.15\nsamples = 25\nvalue = [1, 23, 1]\nclass = R", fillcolor="#49e78c"] ;
24 -> 25 ;
26 [label="gini = 0.077\nsamples = 25\nvalue = [1, 24, 0]\nclass = R", fillcolor="#41e686"] ;
24 -> 26 ;
27 [label="LW <= 3.5\ngini = 0.385\nsamples = 75\nvalue = [4, 57, 14]\nclass = R", fillcolor="#73eda6"] ;
21 -> 27 ;
28 [label="gini = 0.458\nsamples = 25\nvalue = [1, 17, 7]\nclass = R", fillcolor="#91f1b9"] ;
27 -> 28 ;
29 [label="LW <= 4.5\ngini = 0.337\nsamples = 50\nvalue = [3, 40, 7]\nclass = R", fillcolor="#67eb9e"] ;
27 -> 29 ;
30 [label="gini = 0.39\nsamples = 25\nvalue = [2, 19, 4]\nclass = R", fillcolor="#72eca5"] ;
29 -> 30 ;
31 [label="gini = 0.278\nsamples = 25\nvalue = [1, 21, 3]\nclass = R", fillcolor="#5dea98"] ;
29 -> 31 ;
32 [label="LW <= 3.5\ngini = 0.58\nsamples = 225\nvalue = [21, 102, 102]\nclass = R", fillcolor="#ffffff"] ;
20 -> 32 ;
33 [label="RW <= 3.5\ngini = 0.545\nsamples = 75\nvalue = [7, 24, 44]\nclass = L", fillcolor="#ceb1f5"] ;
32 -> 33 ;
34 [label="gini = 0.64\nsamples = 25\nvalue = [5, 10, 10]\nclass = R", fillcolor="#ffffff"] ;
33 -> 34 ;
35 [label="RW <= 4.5\ngini = 0.458\nsamples = 50\nvalue = [2, 14, 34]\nclass = L", fillcolor="#b991f1"] ;
33 -> 35 ;
36 [label="gini = 0.486\nsamples = 25\nvalue = [1, 8, 16]\nclass = L", fillcolor="#c4a2f3"] ;
35 -> 36 ;
37 [label="gini = 0.422\nsamples = 25\nvalue = [1, 6, 18]\nclass = L", fillcolor="#af82ef"] ;
35 -> 37 ;
38 [label="RW <= 3.5\ngini = 0.571\nsamples = 150\nvalue = [14, 78, 58]\nclass = R", fillcolor="#d4f9e4"] ;
32 -> 38 ;
39 [label="LW <= 4.5\ngini = 0.458\nsamples = 50\nvalue = [2, 34, 14]\nclass = R", fillcolor="#91f1b9"] ;
38 -> 39 ;
40 [label="gini = 0.486\nsamples = 25\nvalue = [1, 16, 8]\nclass = R", fillcolor="#a2f3c4"] ;
39 -> 40 ;
41 [label="gini = 0.422\nsamples = 25\nvalue = [1, 18, 6]\nclass = R", fillcolor="#82efaf"] ;
39 -> 41 ;
42 [label="RW <= 4.5\ngini = 0.598\nsamples = 100\nvalue = [12, 44, 44]\nclass = R", fillcolor="#ffffff"] ;
38 -> 42 ;
43 [label="LW <= 4.5\ngini = 0.591\nsamples = 50\nvalue = [6, 25, 19]\nclass = R", fillcolor="#d9fae7"] ;
42 -> 43 ;
44 [label="gini = 0.64\nsamples = 25\nvalue = [5, 10, 10]\nclass = R", fillcolor="#ffffff"] ;
43 -> 44 ;
45 [label="gini = 0.509\nsamples = 25\nvalue = [1, 15, 9]\nclass = R", fillcolor="#b5f5d0"] ;
43 -> 45 ;
46 [label="LW <= 4.5\ngini = 0.591\nsamples = 50\nvalue = [6, 19, 25]\nclass = L", fillcolor="#e7d9fa"] ;
42 -> 46 ;
47 [label="gini = 0.509\nsamples = 25\nvalue = [1, 9, 15]\nclass = L", fillcolor="#d0b5f5"] ;
46 -> 47 ;
48 [label="gini = 0.64\nsamples = 25\nvalue = [5, 10, 10]\nclass = R", fillcolor="#ffffff"] ;
46 -> 48 ;
}